{"edges": [[1, 0], [1, 2], [1, 3], [0, 1], [0, 2], [0, 3], [2, 0], [2, 1], [2, 3], [3, 0], [3, 1], [3, 2]], "edges_weight": [0.151, 0.212, 0.759, 0.757, 0.232, 0.12, 0.196, 0.538, 0.593, 0.614, 0.305, 0.539], "node_ids": {"total_cases": 0, "percent_cases": 1, "deaths": 2, "percent_deaths": 3}, "database": [[-0.895428478717804, 0.0, -0.7142857313156128, 0.0], [-0.8965549468994141, 0.0, -0.7142857313156128, 0.0], [-0.9053787589073181, -1.0, -0.7142857313156128, 0.0], [-0.9019994139671326, -1.0, -0.7142857313156128, 0.0], [-0.8909227252006531, 0.0, -0.7142857313156128, 0.0], [-0.8969303965568542, 0.0, -0.7142857313156128, 0.0], [-0.8852905035018921, 1.0, -0.7142857313156128, 0.0], [-0.9010607004165649, -1.0, -0.7142857313156128, 0.0], [-0.8886698484420776, 0.0, -0.7142857313156128, 0.0], [-0.8967426419258118, 0.0, -0.7142857313156128, 0.0], [-0.8965549468994141, -1.0, -0.7142857313156128, 0.0], [-0.8997465372085571, 0.0, -0.7142857313156128, 0.0], [-0.8798460364341736, 0.0, -0.7142857313156128, 0.0], [-0.8884820938110352, 0.0, -0.7142857313156128, 0.0], [-0.8869801759719849, 0.0, -0.7142857313156128, 0.0], [-0.8958039879798889, -1.0, -0.7142857313156128, 0.0], [-0.8894208073616028, 0.0, -0.7142857313156128, 0.0], [-0.8973059058189392, -1.0, -0.7142857313156128, 0.0], [-0.8909227252006531, 0.0, -0.7142857313156128, 0.0], [-0.8875433802604675, 0.0, -0.7142857313156128, 0.0], [-0.8867924213409424, -1.0, -0.7142857313156128, 0.0], [-0.882098913192749, 0.0, -0.7142857313156128, 0.0], [-0.8894208073616028, 0.0, -0.7142857313156128, 0.0], [-0.8804092407226562, 0.0, -0.7142857313156128, 0.0], [-0.8862292170524597, 0.0, -0.7142857313156128, 0.0], [-0.8935511112213135, -1.0, -0.7142857313156128, 0.0], [-0.8710222244262695, 1.0, -0.7142857313156128, 0.0], [-0.8734628558158875, 0.0, -0.7142857313156128, 0.0], [-0.8742138147354126, 0.0, -0.7142857313156128, 0.0], [-0.8685815930366516, 0.0, -0.7142857313156128, 0.0], [-0.8751525282859802, 0.0, -0.7142857313156128, 0.0], [-0.878531813621521, 0.0, -0.7142857313156128, 0.0], [-0.8657654523849487, 0.0, -0.7142857313156128, 0.0], [-0.8637003302574158, 1.0, -0.7142857313156128, 0.0], [-0.8638880848884583, 0.0, -0.7142857313156128, 0.0], [-0.878531813621521, -1.0, -0.7142857313156128, 0.0], [-0.850746214389801, 1.0, -0.7142857313156128, 0.0], [-0.8368534445762634, 1.0, -0.7142857313156128, 0.0], [-0.8667041659355164, -1.0, -0.7142857313156128, 0.0], [-0.8697080612182617, 0.0, -0.7142857313156128, 0.0], [-0.8695203065872192, 0.0, -0.7142857313156128, 0.0], [-0.8742138147354126, -1.0, -0.7142857313156128, 0.0], [-0.856378436088562, 0.0, -0.7142857313156128, 0.0], [-0.85994553565979, 0.0, -0.7142857313156128, 0.0], [-0.8601332902908325, 0.0, -0.7142857313156128, 0.0], [-0.8541255593299866, 0.0, -0.7142857313156128, 0.0], [-0.8616352081298828, 0.0, -0.7142857313156128, 0.0], [-0.8560029864311218, 0.0, -0.7142857313156128, 0.0], [-0.847554624080658, 0.0, -0.7142857313156128, 0.0], [-0.8496198058128357, 0.0, -0.7142857313156128, 0.0], [-0.843424379825592, -1.0, -0.7142857313156128, 0.0], [-0.8421101570129395, 0.0, -0.7142857313156128, 0.0], [-0.8605087399482727, 0.0, -0.7142857313156128, 0.0], [-0.8635125756263733, 0.0, -0.7142857313156128, 0.0], [-0.8426734209060669, -1.0, -0.7142857313156128, 0.0], [-0.8133858442306519, 1.0, -0.7142857313156128, 0.0], [-0.8203322887420654, 0.0, -0.7142857313156128, 0.0], [-0.8396695256233215, -1.0, -0.7142857313156128, 0.0], [-0.8250257968902588, 0.0, -0.7142857313156128, 0.0], [-0.8263399600982666, 0.0, -0.7142857313156128, 0.0], [-0.8128226399421692, 0.0, -0.7142857313156128, 0.0], [-0.7872899174690247, -1.0, -0.7142857313156128, 0.0], [-0.8272786736488342, 0.0, -0.7142857313156128, 0.0], [-0.8203322887420654, -1.0, -0.7142857313156128, 0.0], [-0.7897305488586426, 0.0, -0.7142857313156128, 0.0], [-0.8255890011787415, 0.0, -0.7142857313156128, 0.0], [-0.7959259748458862, -1.0, -0.7142857313156128, 0.0], [-0.8013705015182495, 0.0, -0.7142857313156128, 0.0], [-0.7354735136032104, -1.0, -0.7142857313156128, 0.0], [-0.7874776721000671, -1.0, -0.7142857313156128, 0.0], [-0.7679526805877686, 0.0, -0.7142857313156128, 0.0], [-0.8126348853111267, -1.0, -0.7142857313156128, 0.0], [-0.7963014841079712, 0.0, -0.7142857313156128, 0.0], [-0.7016802430152893, -1.0, -0.7142857313156128, 0.0], [-0.8113207221031189, -1.0, -0.7142857313156128, 0.0], [-0.7043086290359497, 0.0, -0.7142857313156128, 0.0], [-0.7987421154975891, -1.0, -0.7142857313156128, 0.0], [-0.7972401976585388, -1.0, -0.7142857313156128, 0.0], [-0.7737725973129272, -1.0, -0.7142857313156128, 0.0], [-0.7673894166946411, -1.0, -0.7142857313156128, 0.0], [-0.7673894166946411, -1.0, -0.7142857313156128, 0.0], [-0.7805312871932983, 0.0, -0.7142857313156128, 0.0], [-0.7138833999633789, -1.0, -0.7142857313156128, 0.0], [-0.7625081539154053, -1.0, -0.7142857313156128, 0.0], [-0.7091898918151855, 0.0, -0.7142857313156128, 0.0], [-0.7350980639457703, -1.0, -0.7142857313156128, 0.0], [-0.7304045557975769, 0.0, -0.7142857313156128, 0.0], [-0.7760255336761475, -1.0, -0.7142857313156128, 0.0], [-0.7253355383872986, -1.0, -0.7142857313156128, 0.0], [-0.6581244468688965, 0.0, -0.7142857313156128, 0.0], [-0.6528676748275757, 0.0, -0.7142857313156128, 0.0], [-0.7292780876159668, -1.0, -0.7142857313156128, 0.0], [-0.7050595879554749, -1.0, -0.7142857313156128, 0.0], [-0.7208297848701477, 0.0, -0.7142857313156128, 0.0], [-0.7715197205543518, -1.0, -0.7142857313156128, 0.0], [-0.7814699411392212, 0.0, -0.7142857313156128, 0.0], [-0.7489908933639526, -1.0, -0.7142857313156128, 0.0], [-0.6885384321212769, -1.0, -0.7142857313156128, 0.0], [-0.739228367805481, 0.0, -0.7142857313156128, 0.0], [-0.7741481065750122, -1.0, -0.7142857313156128, 0.0], [-0.7161362767219543, -1.0, -0.7142857313156128, 0.0], [-0.7735848426818848, 0.0, -0.4285714328289032, 0.0], [-0.7916079759597778, -1.0, -0.7142857313156128, 0.0], [-0.7972401976585388, -1.0, -0.7142857313156128, 0.0], [-0.7916079759597778, 0.0, -0.7142857313156128, 0.0], [-0.716323971748352, -1.0, -0.7142857313156128, 0.0], [-0.7343471050262451, 0.0, -0.7142857313156128, 0.0], [-0.7281516790390015, -1.0, -0.7142857313156128, 0.0], [-0.7168872356414795, 0.0, -0.7142857313156128, 0.0], [-0.6023654937744141, -1.0, -0.7142857313156128, 0.0], [-0.6294001340866089, 0.0, -0.7142857313156128, 0.0], [-0.731531023979187, -1.0, -0.7142857313156128, 0.0], [-0.7386651039123535, 0.0, -0.7142857313156128, 0.0], [-0.6222659945487976, -1.0, -0.7142857313156128, 0.0], [-0.7326574325561523, 0.0, -0.7142857313156128, 0.0], [-0.7401670217514038, -1.0, -0.7142857313156128, 0.0], [-0.7801557779312134, -1.0, -0.7142857313156128, 0.0], [-0.744485080242157, 0.0, -0.7142857313156128, 0.0], [-0.7621327042579651, -1.0, -0.7142857313156128, 0.0], [-0.7859757542610168, -1.0, -0.4285714328289032, 0.0], [-0.7628836631774902, -1.0, -0.7142857313156128, 0.0], [-0.7521824836730957, 0.0, -0.7142857313156128, 0.0], [-0.7934854030609131, -1.0, -0.7142857313156128, 0.0], [-0.7916079759597778, -1.0, -0.7142857313156128, 0.0], [-0.779029369354248, -1.0, -0.4285714328289032, 0.0], [-0.8039988279342651, 0.0, -0.7142857313156128, 0.0], [-0.7908570170402527, -1.0, -0.4285714328289032, 0.0], [-0.7989298701286316, -1.0, -1.0, 0.0], [-0.7767764329910278, -1.0, -0.7142857313156128, 0.0], [-0.8079413771629333, -1.0, -0.7142857313156128, 0.0], [-0.8070026636123657, -1.0, -0.7142857313156128, 0.0], [-0.817703902721405, -1.0, -0.7142857313156128, 0.0], [-0.8071904182434082, 0.0, -0.7142857313156128, 0.0], [-0.8152632713317871, -1.0, -0.7142857313156128, 0.0], [-0.8008072376251221, -1.0, -0.7142857313156128, 0.0], [-0.8026846647262573, -1.0, -0.7142857313156128, 0.0], [-0.8362902402877808, -1.0, -0.7142857313156128, 0.0], [-0.8520604372024536, -1.0, -0.7142857313156128, 0.0], [-0.8760912418365479, -1.0, -0.7142857313156128, 0.0], [-0.8379799127578735, -1.0, -0.7142857313156128, 0.0], [-0.8417347073554993, -1.0, -0.7142857313156128, 0.0], [-0.8248380422592163, -1.0, -0.7142857313156128, 0.0], [-0.7991175651550293, -1.0, -0.7142857313156128, 0.0], [-0.8406082391738892, -1.0, -0.7142857313156128, 0.0], [-0.8545010685920715, -1.0, -0.7142857313156128, 0.0], [-0.8481178879737854, -1.0, -0.7142857313156128, 0.0], [-0.8516849279403687, -1.0, -0.7142857313156128, 0.0], [-0.8280296325683594, 0.0, -0.7142857313156128, 0.0], [-0.8062517046928406, -1.0, -0.7142857313156128, 0.0], [-0.8041865825653076, -1.0, -1.0, 0.0], [-0.8282173871994019, -1.0, -0.7142857313156128, 0.0], [-0.8430488705635071, -1.0, -0.7142857313156128, 0.0], [-0.8526236414909363, -1.0, -0.7142857313156128, 0.0], [-0.8415469527244568, -1.0, -0.7142857313156128, 0.0], [-0.8361024856567383, -1.0, -0.7142857313156128, 0.0], [-0.808880090713501, -1.0, -0.7142857313156128, 0.0], [-0.8092555999755859, -1.0, -0.7142857313156128, 0.0], [-0.8387308120727539, 0.0, -0.7142857313156128, 0.0], [-0.8565661907196045, -1.0, -0.7142857313156128, 0.0], [-0.8413591980934143, -1.0, -0.7142857313156128, 0.0], [-0.8347883224487305, -1.0, -0.7142857313156128, 0.0], [-0.8349760174751282, -1.0, -0.7142857313156128, 0.0], [-0.840232789516449, -1.0, -0.7142857313156128, 0.0], [-0.8163897395133972, -1.0, -0.7142857313156128, 0.0], [-0.8376044034957886, -1.0, -0.7142857313156128, 0.0], [-0.8668919205665588, -1.0, -0.7142857313156128, 0.0], [-0.8449262976646423, -1.0, -0.7142857313156128, 0.0], [-0.8203322887420654, -1.0, -0.7142857313156128, 0.0], [-0.8250257968902588, 0.0, -0.7142857313156128, 0.0], [-0.8081291317939758, -1.0, -0.7142857313156128, 0.0], [-0.8190180659294128, -1.0, -0.7142857313156128, 0.0], [-0.8267154693603516, -1.0, -0.7142857313156128, 0.0], [-0.8430488705635071, -1.0, -0.7142857313156128, 0.0], [-0.84586501121521, -1.0, -0.7142857313156128, 0.0], [-0.8325353860855103, -1.0, -0.7142857313156128, 0.0], [-0.8381676077842712, -1.0, -0.7142857313156128, 0.0], [-0.8344128131866455, -1.0, -0.7142857313156128, 0.0], [-0.8317844271659851, -1.0, -0.7142857313156128, 0.0], [-0.8235238790512085, 0.0, -0.7142857313156128, 0.0], [-0.8280296325683594, -1.0, -0.7142857313156128, 0.0], [-0.8188303709030151, -1.0, -0.7142857313156128, 0.0], [-0.8383553624153137, -1.0, -0.7142857313156128, 0.0], [-0.7640100717544556, -1.0, -0.7142857313156128, 0.0], [-0.748052179813385, -1.0, -0.7142857313156128, 0.0], [-0.7779029011726379, -1.0, -0.7142857313156128, 0.0], [-0.8379799127578735, 0.0, -0.7142857313156128, 0.0], [-0.8411715030670166, -1.0, -0.7142857313156128, 0.0], [-0.7946118116378784, -1.0, -0.7142857313156128, 0.0], [-0.8131981492042542, -1.0, -0.7142857313156128, 0.0], [-0.8173284530639648, -1.0, -0.7142857313156128, 0.0], [-0.7940486073493958, -1.0, -0.7142857313156128, 0.0], [-0.8152632713317871, -1.0, -0.7142857313156128, 0.0], [-0.8062517046928406, -1.0, -0.7142857313156128, 0.0], [-0.8055007457733154, -1.0, -0.7142857313156128, 0.0], [-0.7947995662689209, -1.0, -0.7142857313156128, 0.0], [-0.8028724193572998, -1.0, -0.7142857313156128, 0.0], [-0.7516192197799683, 0.0, -0.7142857313156128, 0.0], [-0.7756500244140625, -1.0, -0.7142857313156128, 0.0], [-0.7268374562263489, -1.0, -0.7142857313156128, 0.0], [-0.7172627449035645, -1.0, -0.7142857313156128, 0.0], [-0.7628836631774902, -1.0, -0.7142857313156128, 0.0], [-0.7414812445640564, -1.0, -0.7142857313156128, 0.0], [-0.7437341213226318, -1.0, -0.7142857313156128, 0.0], [-0.7486153841018677, 0.0, -0.7142857313156128, 0.0], [-0.6870365142822266, -1.0, -0.7142857313156128, 0.0], [-0.64911288022995, -1.0, -0.7142857313156128, 0.0], [-0.6725804805755615, -1.0, -0.7142857313156128, 0.0], [-0.6588754057884216, -1.0, -0.7142857313156128, 0.0], [-0.6902281045913696, 0.0, -0.7142857313156128, 0.0], [-0.6275227069854736, -1.0, -0.7142857313156128, 0.0], [-0.6083731651306152, -1.0, -0.7142857313156128, 0.0], [-0.5606870651245117, -1.0, -0.7142857313156128, 0.0], [-0.5764572620391846, -1.0, -0.7142857313156128, 0.0], [-0.7044963836669922, -1.0, -0.7142857313156128, 0.0], [-0.5276447534561157, 0.0, -0.7142857313156128, 0.0], [-0.5047404170036316, -1.0, -0.7142857313156128, 0.0], [-0.5665070414543152, -1.0, -0.7142857313156128, 0.0], [-0.6012390851974487, -1.0, -0.7142857313156128, 0.0], [-0.6339058876037598, -1.0, -0.7142857313156128, 0.0], [-0.5807753205299377, -1.0, -0.7142857313156128, 0.0], [-0.576645016670227, 0.0, -0.7142857313156128, 0.0], [-0.6217027902603149, -1.0, -0.7142857313156128, 0.0], [-0.43696609139442444, -1.0, -0.7142857313156128, 0.0], [-0.481648325920105, -1.0, -0.7142857313156128, 0.0], [-0.37688910961151123, -1.0, -0.7142857313156128, 0.0], [-0.30010324716567993, 0.0, -0.7142857313156128, 0.0], [-0.20980000495910645, -1.0, -0.7142857313156128, 0.0], [-0.25091516971588135, -1.0, -0.7142857313156128, 0.0], [-0.294095516204834, 0.0, -0.7142857313156128, 0.0], [-0.12850838899612427, -1.0, -0.7142857313156128, 0.0], [-0.1692480444908142, 0.0, -0.7142857313156128, 0.0], [-0.016051769256591797, -1.0, -0.4285714328289032, 0.0], [-0.04665350914001465, 0.0, -0.7142857313156128, 0.0], [-0.14972305297851562, -1.0, -0.7142857313156128, 0.0], [-0.07068425416946411, -1.0, -0.7142857313156128, 0.0], [-0.1555430293083191, -1.0, -0.7142857313156128, 0.0], [0.4148128032684326, 0.0, -0.7142857313156128, 0.0], [0.47770583629608154, 0.0, -0.7142857313156128, 0.0], [0.06955790519714355, -1.0, -0.4285714328289032, 0.0], [0.14596831798553467, -1.0, -0.7142857313156128, 0.0], [0.228010892868042, -1.0, -0.7142857313156128, 0.0], [0.055101871490478516, 0.0, -0.7142857313156128, 0.0], [-0.08420157432556152, -1.0, -0.7142857313156128, 0.0], [0.007415771484375, -1.0, -0.7142857313156128, 0.0], [-0.9106354713439941, -1.0, -0.7142857313156128, 0.0], [1.0, 0.0, -0.4285714328289032, 0.0], [-0.16342812776565552, -1.0, -0.7142857313156128, 0.0], [0.4756406545639038, -1.0, -0.7142857313156128, 0.0], [-0.04890638589859009, 0.0, -0.7142857313156128, 0.0], [-0.17150092124938965, -1.0, -0.7142857313156128, 0.0], [-0.18238991498947144, -1.0, -0.4285714328289032, 0.0], [-0.9106354713439941, -1.0, -0.7142857313156128, 0.0], [0.8351638317108154, -1.0, -0.7142857313156128, 0.0], [0.40054452419281006, -1.0, -0.7142857313156128, 0.0], [0.26293063163757324, 0.0, -0.7142857313156128, 0.0], [-0.11761939525604248, -1.0, -0.7142857313156128, 0.0], [-0.15253913402557373, -1.0, -0.7142857313156128, 0.0], [-0.09734344482421875, -1.0, -0.7142857313156128, 0.0], [-0.04646575450897217, -1.0, -0.7142857313156128, 0.0], [0.3738853931427002, 0.0, -0.7142857313156128, 0.0], [0.4238243103027344, -1.0, -0.7142857313156128, 0.0], [0.393410325050354, -1.0, -0.7142857313156128, 0.0], [0.16004884243011475, -1.0, -0.7142857313156128, 0.0], [0.11743175983428955, 0.0, -0.7142857313156128, 0.0], [0.015676379203796387, -1.0, -0.7142857313156128, 0.0], [0.07631659507751465, -1.0, -0.7142857313156128, 0.0], [0.2631183862686157, 0.0, -0.7142857313156128, 0.0], [0.23514509201049805, -1.0, -0.7142857313156128, 0.0], [0.30273163318634033, -1.0, -0.7142857313156128, 0.0], [-0.02450007200241089, 0.0, -0.7142857313156128, 0.0], [-0.19740915298461914, -1.0, -0.7142857313156128, 0.0], [-0.2858349084854126, -1.0, -0.7142857313156128, 0.0], [-0.41800427436828613, -1.0, -0.4285714328289032, 0.0], [-0.30798834562301636, -1.0, -0.1428571343421936, 0.0], [-0.3278888463973999, -1.0, -0.7142857313156128, 0.0], [-0.24265462160110474, -1.0, -0.7142857313156128, 0.0], [-0.1270064115524292, 0.0, -0.7142857313156128, 0.0], [-0.414624959230423, -1.0, -0.7142857313156128, 0.0], [-0.49985915422439575, -1.0, -0.7142857313156128, 0.0], [-0.46982067823410034, -1.0, -0.7142857313156128, 0.0], [-0.42870548367500305, -1.0, -0.1428571343421936, 0.0], [-0.417253315448761, -1.0, -0.7142857313156128, 0.0], [-0.3896554708480835, -1.0, -0.4285714328289032, 0.0], [-0.4619355797767639, -1.0, -0.7142857313156128, 0.0], [-0.5539284348487854, -1.0, -0.7142857313156128, 0.0], [-0.6339058876037598, 0.0, -0.7142857313156128, 0.0], [-0.5636909008026123, -1.0, -0.4285714328289032, 0.0], [-0.5237022042274475, -1.0, -1.0, 0.0], [-0.5740166902542114, -1.0, -0.4285714328289032, 0.0], [-0.4865295886993408, -1.0, -0.7142857313156128, 0.0], [-0.6021777391433716, -1.0, -0.4285714328289032, 0.0], [-0.668825626373291, -1.0, -1.0, 0.0], [-0.6860978007316589, -1.0, -0.7142857313156128, 0.0], [-0.6569980382919312, -1.0, -0.7142857313156128, 0.0], [-0.6562470197677612, -1.0, -0.7142857313156128, 0.0], [-0.6539941430091858, -1.0, -0.7142857313156128, 0.0], [-0.6442316770553589, -1.0, -0.7142857313156128, 0.0], [-0.7274007201194763, -1.0, -0.7142857313156128, 0.0], [-0.7334083914756775, -1.0, -0.7142857313156128, 0.0], [-0.7927343845367432, -1.0, -0.7142857313156128, 0.0], [-0.7824087142944336, -1.0, -0.4285714328289032, 0.0], [-0.7375386953353882, -1.0, -0.7142857313156128, 0.0], [-0.7473012208938599, -1.0, -0.7142857313156128, 0.0], [-0.7210175395011902, -1.0, -0.7142857313156128, 0.0], [-0.7769641876220703, -1.0, -0.7142857313156128, 0.0], [-0.808504581451416, -1.0, -0.7142857313156128, 0.0], [-0.7856003046035767, -1.0, -0.7142857313156128, 0.0], [-0.7891673445701599, -1.0, -0.7142857313156128, 0.0], [-0.766638457775116, -1.0, -0.7142857313156128, 0.0], [-0.7711442708969116, 0.0, -0.7142857313156128, 0.0], [-0.7780906558036804, -1.0, -0.7142857313156128, 0.0], [-0.7996808290481567, -1.0, -0.7142857313156128, 0.0], [-0.8325353860855103, -1.0, -0.7142857313156128, 0.0], [-0.8312212228775024, -1.0, -0.7142857313156128, 0.0], [-0.8242748379707336, -1.0, -0.7142857313156128, 0.0], [-0.786726713180542, -1.0, -0.7142857313156128, 0.0], [-0.7869144678115845, -1.0, -0.7142857313156128, 0.0], [-0.8079413771629333, -1.0, -0.7142857313156128, 0.0], [-0.8175161480903625, -1.0, -0.7142857313156128, 0.0], [-0.8267154693603516, -1.0, -0.7142857313156128, 0.0], [-0.8126348853111267, -1.0, -0.7142857313156128, 0.0], [-0.8244625329971313, -1.0, -0.7142857313156128, 0.0], [-0.8212709426879883, -1.0, -0.7142857313156128, 0.0], [-0.8263399600982666, -1.0, -0.7142857313156128, 0.0], [-0.828968346118927, -1.0, -0.7142857313156128, 0.0], [-0.8347883224487305, -1.0, -0.7142857313156128, 0.0], [-0.8779686093330383, -1.0, -0.7142857313156128, 0.0], [-0.8505585193634033, -1.0, -0.7142857313156128, 0.0], [-0.8321599364280701, -1.0, -0.4285714328289032, 0.0], [-0.8216464519500732, -1.0, -0.7142857313156128, 0.0], [-0.8274664282798767, -1.0, -0.7142857313156128, 0.0], [-0.808880090713501, -1.0, -0.7142857313156128, 0.0], [-0.8518726825714111, -1.0, -0.7142857313156128, 0.0], [-0.8560029864311218, -1.0, -0.7142857313156128, 0.0], [-0.8518726825714111, -1.0, -0.7142857313156128, 0.0], [-0.8569416999816895, -1.0, -0.4285714328289032, 0.0], [-0.8389185667037964, -1.0, -0.7142857313156128, 0.0], [-0.8126348853111267, -1.0, -0.7142857313156128, 0.0], [-0.8150755167007446, -1.0, -0.7142857313156128, 0.0], [-0.839857280254364, -1.0, -0.7142857313156128, 0.0], [-0.8391063213348389, -1.0, -0.7142857313156128, 0.0], [-0.8633248805999756, -1.0, -0.7142857313156128, 0.0], [-0.8471791744232178, -1.0, -0.7142857313156128, 0.0], [-0.8437998294830322, -1.0, -0.4285714328289032, 0.0], [-0.7835351228713989, -1.0, -0.7142857313156128, 0.0], [-0.8539378046989441, -1.0, -0.7142857313156128, 0.0], [-0.8479301333427429, -1.0, -0.7142857313156128, 0.0], [-0.8652022480964661, -1.0, -0.4285714328289032, 0.0], [-0.85994553565979, -1.0, -0.7142857313156128, 0.0], [-0.8612596988677979, -1.0, -0.7142857313156128, 0.0], [-0.8421101570129395, -1.0, -0.7142857313156128, 0.0], [-0.7820332050323486, -1.0, -0.4285714328289032, 0.0], [-0.7732093930244446, -1.0, -0.7142857313156128, 0.0], [-0.8160142302513123, -1.0, -0.7142857313156128, 0.0], [-0.8605087399482727, -1.0, -0.7142857313156128, 0.0], [-0.8362902402877808, -1.0, -0.7142857313156128, 0.0], [-0.8565661907196045, -1.0, -0.7142857313156128, 0.0], [-0.8300947546958923, -1.0, -0.7142857313156128, 0.0], [-0.8244625329971313, -1.0, -0.7142857313156128, 0.0], [-0.8207077383995056, -1.0, -0.7142857313156128, 0.0], [-0.8370411992073059, -1.0, -0.7142857313156128, 0.0], [-0.8456772565841675, -1.0, -0.7142857313156128, 0.0], [-0.8522481918334961, -1.0, -0.7142857313156128, 0.0], [-0.8340373039245605, -1.0, -0.7142857313156128, 0.0], [-0.8469914197921753, -1.0, -0.7142857313156128, 0.0], [-0.8439875841140747, -1.0, -0.7142857313156128, 0.0], [-0.8486810922622681, 0.0, -0.7142857313156128, 0.0], [-0.8270909190177917, -1.0, -0.7142857313156128, 0.0], [-0.8496198058128357, -1.0, -0.7142857313156128, 0.0], [-0.8554397821426392, -1.0, -0.7142857313156128, 0.0], [-0.8697080612182617, -1.0, -0.7142857313156128, 0.0], [-0.84586501121521, -1.0, -0.7142857313156128, 0.0], [-0.8389185667037964, -1.0, -0.7142857313156128, 0.0], [-0.8259645104408264, -1.0, -0.7142857313156128, 0.0], [-0.8514971733093262, -1.0, -0.7142857313156128, 0.0], [-0.8625738620758057, -1.0, -0.7142857313156128, 0.0], [-0.8695203065872192, -1.0, -0.7142857313156128, 0.0], [-0.8685815930366516, -1.0, -0.1428571343421936, 0.0], [-0.8192058205604553, -1.0, -0.7142857313156128, 0.0], [-0.845489501953125, -1.0, -0.7142857313156128, 0.0], [-0.8498075604438782, -1.0, -0.7142857313156128, 0.0], [-0.85994553565979, -1.0, -0.7142857313156128, 0.0], [-0.8730873465538025, -1.0, -0.7142857313156128, 0.0], [-0.8721486330032349, -1.0, -0.7142857313156128, 0.0], [-0.8653900027275085, -1.0, -0.7142857313156128, 0.0], [-0.8421101570129395, -1.0, -0.7142857313156128, 0.0], [-0.8460527062416077, -1.0, -0.7142857313156128, 0.0], [-0.8637003302574158, -1.0, -0.7142857313156128, 0.0], [-0.8685815930366516, -1.0, -0.7142857313156128, 0.0], [-0.8879188895225525, -1.0, -0.4285714328289032, 0.0], [-0.8693325519561768, -1.0, -0.4285714328289032, 0.0], [-0.8646390438079834, -1.0, -0.7142857313156128, 0.0], [-0.8524358868598938, -1.0, -0.7142857313156128, 0.0], [-0.8691447973251343, -1.0, -0.7142857313156128, 0.0], [-0.8597577810287476, -1.0, -0.7142857313156128, 0.0], [-0.8648267984390259, -1.0, -0.7142857313156128, 0.0], [-0.8849149942398071, -1.0, -0.7142857313156128, 0.0], [-0.8819111585617065, -1.0, -0.7142857313156128, 0.0], [-0.8710222244262695, -1.0, -0.7142857313156128, 0.0], [-0.8066272139549255, -1.0, -0.7142857313156128, 0.0], [-0.8646390438079834, -1.0, -0.7142857313156128, 0.0], [-0.8706467151641846, -1.0, -0.7142857313156128, 0.0], [-0.8843517899513245, -1.0, -0.7142857313156128, 0.0], [-0.8961794376373291, -1.0, -0.7142857313156128, 0.0], [-0.8931756019592285, -1.0, -0.7142857313156128, 0.0], [-0.8864169120788574, -1.0, -0.7142857313156128, 0.0], [-0.8787195682525635, -1.0, -0.7142857313156128, 0.0], [-0.8755279779434204, -1.0, -0.7142857313156128, 0.0], [-0.8668919205665588, -1.0, -0.7142857313156128, 0.0], [-0.8779686093330383, -1.0, -0.7142857313156128, 0.0], [-0.8851027488708496, -1.0, -0.7142857313156128, 0.0], [-0.8830376267433167, -1.0, -0.7142857313156128, 0.0], [-0.8837885856628418, -1.0, -0.7142857313156128, 0.0], [-0.8738383054733276, -1.0, -0.7142857313156128, 0.0], [-0.8744015693664551, -1.0, -0.7142857313156128, 0.0], [-0.8804092407226562, -1.0, -0.7142857313156128, 0.0], [-0.8796582818031311, -1.0, -0.7142857313156128, 0.0], [-0.8890452980995178, -1.0, -0.7142857313156128, 0.0], [-0.8884820938110352, -1.0, -0.7142857313156128, 0.0], [-0.8845395445823669, -1.0, -0.7142857313156128, 0.0], [-0.870834469795227, -1.0, -0.7142857313156128, 0.0], [-0.8745892643928528, -1.0, -0.7142857313156128, 0.0], [-0.8777808547019958, 0.0, -0.7142857313156128, 0.0], [-0.8753402233123779, -1.0, -0.7142857313156128, 0.0], [-0.8856659531593323, -1.0, -0.7142857313156128, 0.0], [-0.8860414624214172, -1.0, -0.7142857313156128, 0.0], [-0.8766544461250305, -1.0, -0.7142857313156128, 0.0], [-0.8663287162780762, -1.0, -0.7142857313156128, 0.0], [-0.8657654523849487, -1.0, -0.7142857313156128, 0.0], [-0.8494320511817932, -1.0, -0.7142857313156128, 0.0], [-0.8685815930366516, -1.0, -0.7142857313156128, 0.0], [-0.8777808547019958, -1.0, -0.7142857313156128, 0.0], [-1.0, -1.0, -0.7142857313156128, 0.0], [-0.8601332902908325, -1.0, -0.7142857313156128, 0.0], [-0.8580681085586548, -1.0, -0.7142857313156128, 0.0], [-0.7183891534805298, -1.0, 1.0000001192092896, 0.0], [-0.873275101184845, -1.0, -0.7142857313156128, 0.0], [-0.8723363876342773, -1.0, -1.0, 0.0], [-0.8406082391738892, -1.0, -0.7142857313156128, 0.0], [-0.6592508554458618, -1.0, -0.7142857313156128, 0.0], [-0.8212709426879883, -1.0, -0.7142857313156128, 0.0], [-0.8368534445762634, -1.0, -0.7142857313156128, 0.0], [-0.8079413771629333, -1.0, -0.7142857313156128, 0.0], [-0.7951750159263611, -1.0, -0.7142857313156128, 0.0], [-0.5086829662322998, -1.0, -0.7142857313156128, 0.0], [-0.7626959085464478, -1.0, -0.7142857313156128, 0.0], [-0.7656997442245483, -1.0, -0.7142857313156128, 0.0], [-0.7381018996238708, -1.0, -0.7142857313156128, 0.0], [-0.6645076274871826, -1.0, -0.7142857313156128, 0.0], [-0.23589593172073364, -1.0, -0.7142857313156128, 0.0], [-0.6684501767158508, -1.0, -0.7142857313156128, 0.0], [-0.7172627449035645, -1.0, -0.7142857313156128, 0.0], [-0.6671359539031982, -1.0, -0.7142857313156128, 0.0], [-0.577396035194397, 0.0, -0.7142857313156128, 0.0], [0.1758190393447876, -1.0, -0.4285714328289032, 0.0], [-0.6639443635940552, -1.0, -0.7142857313156128, 0.0], [-0.6284614205360413, -1.0, -0.7142857313156128, 0.0], [-0.5897868871688843, -1.0, -0.4285714328289032, 0.0], [-0.4349009394645691, -1.0, -0.7142857313156128, 0.0], [-0.46719229221343994, 0.0, -0.7142857313156128, 0.0], [-0.46418845653533936, -1.0, -0.7142857313156128, 0.0], [-0.5265183448791504, -1.0, -0.7142857313156128, 0.0], [-0.53684401512146, -1.0, -0.7142857313156128, 0.0], [-0.5779592394828796, -1.0, -0.7142857313156128, 0.0], [-0.5280202627182007, -1.0, -0.7142857313156128, 0.0], [-0.3650614619255066, 0.0, -0.7142857313156128, 0.0], [-0.37369751930236816, -1.0, -0.7142857313156128, 0.0], [-0.32901525497436523, -1.0, -0.7142857313156128, 0.0], [-0.35999244451522827, -1.0, -0.7142857313156128, 0.0], [-0.49723079800605774, 0.0, -0.7142857313156128, 0.0], [-0.3489157557487488, -1.0, -0.7142857313156128, 0.0], [-0.4005444049835205, -1.0, -0.7142857313156128, 0.0], [-0.28339433670043945, 0.0, -0.7142857313156128, 0.0], [-0.31512248516082764, -1.0, -0.4285714328289032, 0.0], [-0.25204163789749146, -1.0, -0.7142857313156128, 0.0], [-0.44353699684143066, 0.0, -0.7142857313156128, 0.0], [-0.41931846737861633, -1.0, -0.7142857313156128, 0.0], [-0.40523791313171387, -1.0, -0.7142857313156128, 0.0], [-0.41481268405914307, -1.0, -0.4285714328289032, 0.0], [-0.26968926191329956, 0.0, -0.7142857313156128, 0.0], [-0.1883975863456726, -1.0, -0.7142857313156128, 0.0], [-0.3596169948577881, -1.0, -0.4285714328289032, 1.0], [-0.19158917665481567, 0.0, -0.7142857313156128, 0.0], [-0.4508588910102844, -1.0, -0.7142857313156128, 0.0], [0.10673058032989502, 0.0, -0.7142857313156128, 0.0], [-0.44259828329086304, -1.0, -0.7142857313156128, 0.0], [-0.3417816162109375, -1.0, -0.7142857313156128, 0.0], [-0.4431615173816681, -1.0, -0.7142857313156128, 0.0], [-0.19834786653518677, 0.0, -0.7142857313156128, 0.0], [-0.4653148949146271, -1.0, -0.7142857313156128, 0.0], [-0.5430394411087036, -1.0, -0.7142857313156128, -1.0], [-0.5651928782463074, 0.0, -0.7142857313156128, 0.0], [-0.6091241836547852, -1.0, -0.7142857313156128, 0.0], [-0.5054913759231567, -1.0, -0.7142857313156128, 0.0], [-0.2788885235786438, -1.0, -0.7142857313156128, 0.0], [-0.4583685100078583, -1.0, -0.4285714328289032, 1.0], [-0.5715760588645935, 0.0, -0.7142857313156128, 0.0], [-0.3145592212677002, -1.0, -0.7142857313156128, 0.0], [-0.5606870651245117, -1.0, -0.4285714328289032, 0.0], [-0.591476559638977, -1.0, -0.7142857313156128, 0.0], [-0.4540504813194275, 0.0, -0.7142857313156128, 0.0], [-0.4728245139122009, -1.0, -0.7142857313156128, 0.0], [-0.49422693252563477, -1.0, -0.7142857313156128, 0.0], [-0.5941048860549927, -1.0, -0.7142857313156128, 0.0], [-0.6205763220787048, -1.0, -0.7142857313156128, 0.0], [-0.6558715105056763, -1.0, -0.7142857313156128, 0.0], [-0.6220782399177551, 0.0, -0.7142857313156128, 0.0], [-0.6004880666732788, -1.0, -0.7142857313156128, 0.0]]}