{"edges": [[3, 0], [3, 2], [0, 3], [1, 2], [1, 3]], "edges_weight": [0.019, 0.243, 0.03, 0.109, 0.17], "node_ids": {"0": 0, "1": 1, "2": 2, "3": 3}, "database": [[-0.9999999999999999, -1.0, -1.0, -1.0], [-0.9997479360317663, -0.9836065573770492, -1.0, -1.0], [-0.9995145434685868, -0.9672131147540983, -1.0, -1.0], [-0.9994274102449999, -0.9672131147540983, -1.0, -1.0], [-0.9992842628062498, -0.9672131147540983, -1.0, -1.0], [-0.9989575132177988, -0.9508196721311475, -1.0, -1.0], [-0.9987303444563042, -0.9344262295081966, -1.0, -1.0], [-0.9983102378425813, -0.901639344262295, -1.0, -1.0], [-0.9981515308996194, -0.901639344262295, -1.0, -1.0], [-0.9977874385010596, -0.8852459016393441, -1.0, -1.0], [-0.9975571578387226, -0.8688524590163934, -1.0, -1.0], [-0.9973237652755432, -0.8688524590163934, -1.0, -1.0], [-0.9971432750266844, -0.8524590163934426, -1.0, -1.0], [-0.9966329232885323, -0.8360655737704917, -1.0, -1.0], [-0.9962657189891301, -0.8196721311475409, -1.0, -1.0], [-0.9958736194829887, -0.8032786885245901, -1.0, -1.0], [-0.9956277793164398, -0.8032786885245901, -1.0, -1.0], [-0.9952761345212495, -0.7868852459016392, -1.0, -1.0], [-0.9950551895614398, -0.7868852459016392, -1.0, -1.0], [-0.9947284399729887, -0.7704918032786884, -1.0, -1.0], [-0.9943456761693744, -0.7540983606557377, -1.0, -1.0], [-0.9939504647623908, -0.7540983606557377, -1.0, -1.0], [-0.9934774558343472, -0.7377049180327868, -1.0, -1.0], [-0.993125811039157, -0.721311475409836, -1.0, -1.0], [-0.992624795003532, -0.7049180327868853, -1.0, -1.0], [-0.9922202478940211, -0.6885245901639343, -1.0, -1.0], [-0.9919370649173634, -0.6885245901639343, -1.0, -1.0], [-0.9912804538396188, -0.6557377049180326, -1.0, -1.0], [-0.9906642974728253, -0.6393442622950819, -1.0, -1.0], [-0.9900605887094013, -0.6229508196721311, -1.0, -1.0], [-0.9893635229207056, -0.6065573770491802, -1.0, -1.0], [-0.9887753736614936, -0.5901639344262294, -1.0, -1.0], [-0.9882432386174447, -0.5737704918032785, -1.0, -1.0], [-0.9874994943161131, -0.5573770491803278, -1.0, -1.0], [-0.9867215191055152, -0.5245901639344261, -1.0, -1.0], [-0.9859466557957597, -0.5081967213114753, -1.0, -1.0], [-0.9854145207517107, -0.5081967213114753, -1.0, -1.0], [-0.9844218243829878, -0.47540983606557363, -1.0, -1.0], [-0.9831988473519279, -0.44262295081967196, -1.0, -1.0], [-0.9824706625548083, -0.44262295081967196, -1.0, -1.0], [-0.9817922681711669, -0.42622950819672123, -1.0, -1.0], [-0.9811107618866832, -0.4098360655737703, -1.0, -1.0], [-0.9805070531232593, -0.4098360655737703, -1.0, -1.0], [-0.979607713779808, -0.39344262295081955, -1.0, -1.0], [-0.9787675005523623, -0.3770491803278688, -1.0, -1.0], [-0.977930399225759, -0.360655737704918, -1.0, -1.0], [-0.9769937170721992, -0.34426229508196715, -1.0, -1.0], [-0.976181510952335, -0.3278688524590163, -1.0, -1.0], [-0.975275947807199, -0.3114754098360655, -1.0, -1.0], [-0.9742303491241554, -0.29508196721311464, -1.0, -1.0], [-0.9732189813503782, -0.2786885245901638, -1.0, -1.0], [-0.972104920848802, -0.2786885245901638, -1.0, -1.0], [-0.9709690770413291, -0.26229508196721296, -1.0, -1.0], [-0.9701381995164106, -0.24590163934426212, -1.0, -1.0], [-0.9693571124049702, -0.2295081967213113, -1.0, -1.0], [-0.9682306043000245, -0.2295081967213113, -1.0, -1.0], [-0.9666186396636657, -0.1967213114754096, -1.0, -1.0], [-0.9651218153584753, -0.180327868852459, -1.0, -1.0], [-0.9639455168400514, -0.180327868852459, -1.0, -1.0], [-0.9625264900559208, -0.16393442622950793, -1.0, -1.0], [-0.961129246577687, -0.14754098360655732, -1.0, -1.0], [-0.959507946238801, -0.13114754098360648, -1.0, -1.0], [-0.9574634273853497, -0.13114754098360648, -1.0, -1.0], [-0.9560817434113279, -0.11475409836065564, -1.0, -1.0], [-0.9545849191061375, -0.11475409836065564, -1.0, -1.0], [-0.9525808549636374, -0.0983606557377048, -1.0, -1.0], [-0.951171163882034, -0.08196721311475397, -1.0, -1.0], [-0.9492697924673328, -0.08196721311475397, -1.0, -1.0], [-0.9474586661770609, -0.06557377049180313, -1.0, -1.0], [-0.9445552626911096, -0.06557377049180313, -1.0, -1.0], [-0.9425138557385007, -0.06557377049180313, -1.0, -1.0], [-0.9401488110982831, -0.04918032786885229, -1.0, -1.0], [-0.9385243988585547, -0.04918032786885229, -1.0, -1.0], [-0.9366292512455382, -0.032786885245901676, -1.0, -1.0], [-0.9331657056079564, -0.032786885245901676, -1.0, -1.0], [-0.9315195100623312, -0.032786885245901676, -1.0, -1.0], [-0.928099531036543, -0.016393442622950616, -1.0, -1.0], [-0.9262448381344777, -0.016393442622950616, -1.0, -1.0], [-0.9243652500256732, -0.016393442622950616, -1.0, -1.0], [-0.9220966743115697, -0.016393442622950616, -1.0, -1.0], [-0.9197222939688249, -0.016393442622950616, -1.0, -1.0], [-0.9173479136260801, -0.016393442622950616, -1.0, -1.0], [-0.9151913663423028, 2.220446049250313e-16, -1.0, -1.0], [-0.9119300942594765, 2.220446049250313e-16, -1.0, -1.0], [-0.9094748044948295, 2.220446049250313e-16, -1.0, -1.0], [-0.9061357348909433, 0.01639344262295106, -1.0, -1.0], [-0.9032261076033072, 0.01639344262295106, -1.0, -1.0], [-0.9002386827946114, 0.032786885245901676, -1.0, -1.0], [-0.8980074498906166, 0.032786885245901676, -1.0, -1.0], [-0.8949360037591761, 0.032786885245901676, -1.0, -1.0], [-0.8907504971261595, 0.049180327868852514, -1.0, -1.0], [-0.8864778572695559, 0.06557377049180357, -1.0, -1.0], [-0.8834717610558056, 0.06557377049180357, -1.0, -1.0], [-0.8800642296333869, 0.06557377049180357, -1.0, -1.0], [-0.876918097881729, 0.08196721311475441, -1.0, -1.0], [-0.8746121793575169, 0.08196721311475441, -1.0, -1.0], [-0.8724711915779515, 0.09836065573770503, -1.0, -1.0], [-0.8697918449526524, 0.09836065573770503, -1.0, -1.0], [-0.8661104662561031, 0.09836065573770503, -1.0, -1.0], [-0.8632693007869996, 0.11475409836065587, -1.0, -1.0], [-0.861006948874581, 0.11475409836065587, -1.0, -1.0], [-0.8577830196018633, 0.11475409836065587, -1.0, -1.0], [-0.8555113319869175, 0.1311475409836067, -0.9428571428571428, -1.0], [-0.8535383868528412, 0.1311475409836067, -0.9428571428571428, -1.0], [-0.8516587987440367, 0.1311475409836067, -0.9428571428571428, -1.0], [-0.8496858536099605, 0.14754098360655776, -0.9428571428571428, -1.0], [-0.8464650362380852, 0.14754098360655776, -0.9428571428571428, -1.0], [-0.8435429613470795, 0.16393442622950838, -0.9428571428571428, -1.0], [-0.840518193728275, 0.16393442622950838, -0.9428571428571428, -1.0], [-0.8373067120589268, 0.18032786885245922, -0.9428571428571428, -1.0], [-0.83219697087572, 0.18032786885245922, -0.9428571428571428, -1.0], [-0.8275353434138174, 0.19672131147541005, -0.9428571428571428, -1.0], [-0.8245665900101758, 0.19672131147541005, -0.9428571428571428, -1.0], [-0.8217160888385452, 0.21311475409836067, -0.9428571428571428, -1.0], [-0.8169362091446317, 0.21311475409836067, -0.9428571428571428, -1.0], [-0.8139861271460446, 0.22950819672131173, -0.9428571428571428, -1.0], [-0.811160521181153, 0.22950819672131173, -0.9428571428571428, -1.0], [-0.8089977500956909, 0.22950819672131173, -0.9428571428571428, -1.0], [-0.8062437178501743, 0.24590163934426257, -0.9428571428571428, -1.0], [-0.8037822042838426, 0.24590163934426257, -0.9428571428571428, -1.0], [-0.8017159021244946, 0.24590163934426257, -0.8857142857142857, -1.0], [-0.7992668361615325, 0.24590163934426257, -0.8857142857142857, -1.0], [-0.796640391850554, 0.2622950819672132, -0.8857142857142857, -1.0], [-0.7946985657249017, 0.2622950819672132, -0.8857142857142857, -1.0], [-0.7927256205908254, 0.2622950819672132, -0.8857142857142857, -1.0], [-0.790544178100309, 0.2622950819672132, -0.8285714285714285, -1.0], [-0.7887766184218306, 0.278688524590164, -0.8285714285714285, -1.0], [-0.7867912256843848, 0.278688524590164, -0.7714285714285715, -1.0], [-0.7849396446831618, 0.278688524590164, -0.8285714285714285, -1.0], [-0.7827208593825365, 0.278688524590164, -0.8285714285714285, -1.0], [-0.7810186496217484, 0.278688524590164, -0.8285714285714285, -1.0], [-0.7793008803567483, 0.278688524590164, -0.8285714285714285, -1.0], [-0.7777604894397644, 0.278688524590164, -0.8285714285714285, -1.0], [-0.7760458320756067, 0.29508196721311486, -0.8285714285714285, -1.0], [-0.7744649864476718, 0.29508196721311486, -0.8285714285714285, -1.0], [-0.7726445244548727, 0.29508196721311486, -0.8285714285714285, -1.0], [-0.7708551814704976, 0.29508196721311486, -0.8285714285714285, -1.0], [-0.7696228687369104, 0.29508196721311486, -0.8285714285714285, -1.0], [-0.7686519556740843, 0.29508196721311486, -0.8285714285714285, -1.0], [-0.7680793659190843, 0.29508196721311486, -0.8285714285714285, -1.0], [-0.7668750602930787, 0.29508196721311486, -0.8285714285714285, -1.0], [-0.765732992683921, 0.29508196721311486, -0.8285714285714285, -1.0], [-0.764310853998948, 0.29508196721311486, -0.8285714285714285, -1.0], [-0.7624623848985675, 0.29508196721311486, -0.8285714285714285, -1.0], [-0.7613016458843554, 0.29508196721311486, -0.8285714285714285, -1.0], [-0.7603711875324803, 0.29508196721311486, -0.8285714285714285, -1.0], [-0.759334924551964, 0.29508196721311486, -0.8285714285714285, -1.0], [-0.7583577876874531, 0.29508196721311486, -0.8285714285714285, -1.0], [-0.7569885513168008, 0.3114754098360659, -0.8285714285714285, -1.0], [-0.755258334448431, 0.3114754098360659, -0.8285714285714285, -1.0], [-0.7534938866707951, 0.3114754098360659, -0.8857142857142857, -1.0], [-0.7521277622009852, 0.3114754098360659, -0.8857142857142857, -1.0], [-0.7510074778977243, 0.3114754098360659, -0.8857142857142857, -1.0], [-0.7500459005374251, 0.3114754098360659, -0.8857142857142857, -1.0], [-0.7489007210274251, 0.3114754098360659, -0.8857142857142857, -1.0], [-0.7476652963929957, 0.3114754098360659, -0.8857142857142857, -1.0], [-0.7459786461364195, 0.3114754098360659, -0.8857142857142857, -1.0], [-0.744298219681528, 0.3114754098360659, -0.8857142857142857, -1.0], [-0.743106361658892, 0.32786885245901654, -0.8857142857142857, -1.0], [-0.7422101342162832, 0.32786885245901654, -0.8857142857142857, -1.0], [-0.7410618428054407, 0.32786885245901654, -0.8857142857142857, -1.0], [-0.7398046348651146, 0.32786885245901654, -0.8857142857142857, -1.0], [-0.7385505388256308, 0.32786885245901654, -0.8857142857142857, -1.0], [-0.737383576009734, 0.32786885245901654, -0.8857142857142857, -1.0], [-0.7358214017868534, 0.32786885245901654, -0.8857142857142857, -1.0], [-0.7346108723591631, 0.32786885245901654, -0.8857142857142857, -1.0], [-0.7338857994628858, 0.32786885245901654, -0.8857142857142857, -1.0], [-0.7327966341680487, 0.32786885245901654, -0.8857142857142857, -1.0], [-0.7312998098628585, 0.32786885245901654, -0.8857142857142857, -1.0], [-0.729880783078728, 0.3442622950819674, -0.8857142857142857, -1.0], [-0.7281816852187821, 0.3442622950819674, -0.8857142857142857, -1.0], [-0.726663077607695, 0.3442622950819674, -0.8857142857142857, -1.0], [-0.725272057931146, 0.3442622950819674, -0.8857142857142857, -1.0], [-0.7241517736278851, 0.3442622950819674, -0.8857142857142857, -1.0], [-0.72307816783726, 0.3442622950819674, -0.8857142857142857, -1.0], [-0.721783617086825, 0.3442622950819674, -0.8857142857142857, -1.0], [-0.720582423361662, 0.3442622950819674, -0.8857142857142857, -1.0], [-0.719318991619651, 0.3442622950819674, -0.8857142857142857, -1.0], [-0.7180119932658465, 0.3442622950819674, -0.8857142857142857, -1.0], [-0.7165680712749769, 0.3606557377049182, -0.8857142857142857, -1.0], [-0.7151988349043246, 0.3606557377049182, -0.8857142857142857, -1.0], [-0.7136771153923951, 0.3606557377049182, -0.8857142857142857, -1.0], [-0.7124790335680743, 0.3606557377049182, -0.8857142857142857, -1.0], [-0.7100486390101666, 0.3606557377049182, -0.8857142857142857, -1.0], [-0.7073537328806554, 0.3606557377049182, -0.8857142857142857, -1.0], [-0.7051536189850847, 0.3606557377049182, -0.8857142857142857, -1.0], [-0.7039493133590791, 0.3770491803278688, -0.8857142857142857, -1.0], [-0.7027979100473942, 0.3770491803278688, -0.8857142857142857, -1.0], [-0.7008747553267962, 0.3770491803278688, -0.8857142857142857, -1.0], [-0.699259678789595, 0.3770491803278688, -0.8857142857142857, -1.0], [-0.6977130640709264, 0.3770491803278688, -0.8857142857142857, -1.0], [-0.6957805736478012, 0.3770491803278688, -0.8857142857142857, -1.0], [-0.6941997280198663, 0.3770491803278688, -0.8857142857142857, -1.0], [-0.6924695111514966, 0.3770491803278688, -0.8857142857142857, -1.0], [-0.6907268466797574, 0.3770491803278688, -0.8857142857142857, -1.0], [-0.6888068038600017, 0.3770491803278688, -0.8857142857142857, -1.0], [-0.687020572776469, 0.3770491803278688, -0.8857142857142857, -1.0], [-0.6843847927629634, 0.3934426229508199, -0.8857142857142857, -1.0], [-0.6821473360572838, 0.3934426229508199, -0.8857142857142857, -1.0], [-0.6791007851325825, 0.3934426229508199, -0.8857142857142857, -1.0], [-0.6758955272649192, 0.3934426229508199, -0.8857142857142857, -1.0], [-0.6734464613019571, 0.3934426229508199, -0.8857142857142857, -1.0], [-0.6706426386429623, 0.3934426229508199, -0.8857142857142857, -1.0], [-0.6678761587940761, 0.3934426229508199, -0.8857142857142857, -1.0], [-0.6651905883670922, 0.4098360655737707, -0.8857142857142857, -1.0], [-0.6614843144638038, 0.4098360655737707, -0.8857142857142857, -1.0], [-0.6571494365903524, 0.4098360655737707, -0.8857142857142857, -1.0], [-0.6532035463221999, 0.4098360655737707, -0.8857142857142857, -1.0], [-0.6490304872925529, 0.4098360655737707, -0.8857142857142857, -1.0], [-0.6453771157035851, 0.42622950819672156, -0.8857142857142857, -1.0], [-0.6406843692332587, 0.42622950819672156, -0.8857142857142857, -1.0], [-0.6356742088770082, 0.42622950819672156, -0.8857142857142857, -1.0], [-0.6298736257067904, 0.42622950819672156, -0.8857142857142857, -1.0], [-0.6243344422073334, 0.42622950819672156, -0.8857142857142857, -1.0], [-0.6209175750823874, 0.42622950819672156, -0.8857142857142857, -1.0], [-0.6145692973639088, 0.4426229508196722, -0.8857142857142857, -1.0], [-0.6078413677426582, 0.4426229508196722, -0.8857142857142857, -1.0], [-0.6021372534985545, 0.4426229508196722, -0.8857142857142857, -1.0], [-0.5970088409102932, 0.4426229508196722, -0.8857142857142857, -1.0], [-0.5924218990686081, 0.4426229508196722, -0.8857142857142857, -1.0], [-0.586954289288526, 0.4426229508196722, -0.8857142857142857, -1.0], [-0.5814182176899114, 0.459016393442623, -0.8857142857142857, -1.0], [-0.5766290022934708, 0.459016393442623, -0.8857142857142857, -1.0], [-0.5687776764681169, 0.459016393442623, -0.8857142857142857, -1.0], [-0.5616669830432522, 0.459016393442623, -0.8857142857142857, -1.0], [-0.552819848948333, 0.459016393442623, -0.8857142857142857, -1.0], [-0.5426999474088756, 0.4754098360655741, -0.8857142857142857, -1.0], [-0.531083221564228, 0.4754098360655741, -0.8857142857142857, -1.0], [-0.5201480020040641, 0.4754098360655741, -0.8857142857142857, -1.0], [-0.5099285196376502, 0.4918032786885249, -0.8857142857142857, -1.0], [-0.496964340728247, 0.4918032786885249, -0.8857142857142857, -1.0], [-0.48467544430164267, 0.5081967213114755, -0.8857142857142857, -1.0], [-0.46984723678764695, 0.5081967213114755, -0.8285714285714285, -1.0], [-0.45552626911096095, 0.5245901639344264, -0.8285714285714285, -1.0], [-0.442913734996748, 0.5245901639344264, -0.8285714285714285, -1.0], [-0.4289910906278882, 0.5245901639344264, -0.8285714285714285, -1.0], [-0.4164750254397893, 0.5245901639344264, -0.8285714285714285, -1.0], [-0.3945050054925049, 0.5409836065573772, -0.8285714285714285, -1.0], [-0.3714924987630194, 0.5573770491803283, -0.8285714285714285, -1.0], [-0.355245264464893, 0.5573770491803283, -0.7714285714285715, -1.0], [-0.3377314865239134, 0.5573770491803283, -0.7714285714285715, -1.0], [-0.31885780791480856, 0.5573770491803283, -0.7714285714285715, -1.0], [-0.30285018998154634, 0.5737704918032789, -0.7714285714285715, -1.0], [-0.2891516024733387, 0.5737704918032789, -0.7714285714285715, -1.0], [-0.27393440735404395, 0.5737704918032789, -0.7714285714285715, -1.0], [-0.27393440735404395, 0.5737704918032789, -0.7714285714285715, -1.0], [-0.24226459248102516, 0.5901639344262297, -0.7142857142857143, -1.0], [-0.22987922712830666, 0.5901639344262297, -0.7142857142857143, -1.0], [-0.2069009513080875, 0.5901639344262297, -0.7142857142857143, -1.0], [-0.1926173264415102, 0.6065573770491806, -0.7142857142857143, -1.0], [-0.18036577282501465, 0.6065573770491806, -0.7142857142857143, -1.0], [-0.1682947094573778, 0.6065573770491806, -0.6571428571428571, -1.0], [-0.1682947094573778, 0.6065573770491806, -0.6571428571428571, -1.0], [-0.13935714352397865, 0.6065573770491806, -0.6571428571428571, -1.0], [-0.11762362804071602, 0.6065573770491806, -0.6571428571428571, -1.0], [-0.09817113587492643, 0.6229508196721312, -0.6571428571428571, -1.0], [-0.08502646671666447, 0.6229508196721312, -0.6571428571428571, -1.0], [-0.07246061111508739, 0.6229508196721312, -0.6571428571428571, -1.0], [-0.05897985666584715, 0.6229508196721312, -0.6571428571428571, -1.0], [-0.044655777088318804, 0.6229508196721312, -0.6571428571428571, -1.0], [-0.023364151524675747, 0.6393442622950822, -0.6571428571428571, -1.0], [-0.0012447603369565297, 0.6393442622950822, -0.6571428571428571, -1.0], [0.020370502914295097, 0.6393442622950822, -0.6571428571428571, -1.0], [0.03811767341845429, 0.6393442622950822, -0.6571428571428571, -1.0], [0.05515844243139045, 0.6557377049180328, -0.6571428571428571, -1.0], [0.0705125611877504, 0.6557377049180328, -0.6571428571428571, -1.0], [0.08687182391620274, 0.6557377049180328, -0.6571428571428571, -1.0], [0.10632742798283479, 0.6721311475409839, -0.6571428571428571, -1.0], [0.1253193588239505, 0.6721311475409839, -0.6571428571428571, -1.0], [0.14543157396832718, 0.6721311475409839, -0.6571428571428571, -1.0], [0.16011974594441525, 0.6885245901639345, -0.6571428571428571, -1.0], [0.1719418572446607, 0.6885245901639345, -0.6571428571428571, -1.0], [0.18229826324814002, 0.6885245901639345, -0.6571428571428571, -1.0], [0.19046389105857542, 0.6885245901639345, -0.6000000000000001, -1.0], [0.20045309276265222, 0.6885245901639345, -0.48571428571428577, -1.0], [0.21011243297743576, 0.6885245901639345, -0.48571428571428577, -1.0], [0.22118457617466492, 0.6885245901639345, -0.48571428571428577, -1.0], [0.23417365029080717, 0.7049180327868851, -0.48571428571428577, -1.0], [0.24239529231640566, 0.7049180327868851, -0.48571428571428577, -1.0], [0.24920413135955832, 0.7049180327868851, -0.48571428571428577, -1.0], [0.25651087453749377, 0.7049180327868851, -0.48571428571428577, -1.0], [0.2644991239999128, 0.7049180327868851, -0.37142857142857144, -1.0], [0.27267719941371804, 0.7049180327868851, -0.37142857142857144, -1.0], [0.28131272425135445, 0.7049180327868851, -0.3142857142857143, -1.0], [0.2887501672646704, 0.7049180327868851, -0.3142857142857143, -1.0], [0.2946627788652143, 0.7049180327868851, -0.3142857142857143, -1.0], [0.29924972070689937, 0.7213114754098362, -0.3142857142857143, -1.0], [0.3050005134636391, 0.7213114754098362, -0.2571428571428571, -1.0], [0.31141414109980814, 0.7213114754098362, -0.3142857142857143, -1.0], [0.3169937793102162, 0.7213114754098362, -0.2571428571428571, -1.0], [0.3240235633131787, 0.7213114754098362, -0.2571428571428571, -1.0], [0.3291364163972279, 0.7213114754098362, -0.20000000000000007, -1.0], [0.3331445446822283, 0.7213114754098362, -0.2571428571428571, -1.0], [0.3368663780897285, 0.7213114754098362, -0.2571428571428571, -1.0], [0.3410705561277996, 0.7213114754098362, -0.2571428571428571, -1.0], [0.3452871817692402, 0.7213114754098362, -0.2571428571428571, -1.0], [0.34954115022078946, 0.7213114754098362, -0.2571428571428571, -1.0], [0.3539569375161431, 0.7213114754098362, -0.2571428571428571, -1.0], [0.35699415273831714, 0.7213114754098362, -0.2571428571428571, -1.0], [0.3599317871335348, 0.7213114754098362, -0.2571428571428571, -1.0], [0.3618860608625567, 0.7213114754098362, -0.2571428571428571, -1.0], [0.36401148913791026, 0.7213114754098362, -0.20000000000000007, -1.0], [0.3668806617145952, 0.7213114754098362, -0.20000000000000007, -1.0], [0.36958801544747577, 0.7213114754098362, -0.20000000000000007, -1.0], [0.3727310352982913, 0.7213114754098362, -0.20000000000000007, -1.0], [0.374946708698074, 0.7213114754098362, -0.20000000000000007, -1.0], [0.37663958275633513, 0.7213114754098362, -0.20000000000000007, -1.0], [0.37871210871736793, 0.7213114754098362, -0.20000000000000007, -1.0], [0.3807255085623953, 0.7213114754098362, -0.20000000000000007, -1.0], [0.3831123365085096, 0.7213114754098362, -0.20000000000000007, -1.0], [0.38542447883440656, 0.7377049180327873, -0.20000000000000007, -1.0], [0.38762148082913495, 0.7377049180327873, -0.20000000000000007, -1.0], [0.3894606142269883, 0.7377049180327873, -0.20000000000000007, -1.0], [0.39075516497742324, 0.7377049180327873, -0.20000000000000007, -1.0], [0.3920714990337548, 0.7377049180327873, -0.20000000000000007, -1.0], [0.39350297342125495, 0.7377049180327873, -0.20000000000000007, -1.0], [0.39555682797723346, 0.7377049180327873, -0.20000000000000007, -1.0], [0.3976075706323694, 0.7377049180327873, -0.20000000000000007, -1.0], [0.39930978039315757, 0.7377049180327873, -0.20000000000000007, -1.0], [0.4008532832109839, 0.7377049180327873, -0.20000000000000007, -1.0], [0.4022443028875329, 0.7377049180327873, -0.20000000000000007, -1.0], [0.4038687151272613, 0.7377049180327873, -0.20000000000000007, -1.0], [0.40529707761391887, 0.7377049180327873, -0.20000000000000007, -1.0], [0.4067783424148974, 0.7377049180327873, -0.20000000000000007, -1.0], [0.4081755858931311, 0.7377049180327873, -0.20000000000000007, -1.0], [0.40952926275957147, 0.7377049180327873, -0.20000000000000007, -1.0], [0.4107864706998976, 0.7377049180327873, -0.20000000000000007, -1.0], [0.4113279414464739, 0.7377049180327873, -0.20000000000000007, -1.0], [0.412323749716039, 0.7377049180327873, -0.20000000000000007, -1.0], [0.4136245242681589, 0.7377049180327873, -0.1428571428571429, -1.0], [0.4150995652674523, 0.7377049180327873, -0.1428571428571429, -1.0], [0.4164781373406319, 0.7377049180327873, -0.1428571428571429, -1.0], [0.4181647875972081, 0.7377049180327873, -0.1428571428571429, -1.0], [0.4191388125608766, 0.7377049180327873, -0.1428571428571429, -1.0], [0.4200443757060126, 0.7377049180327873, -0.1428571428571429, -1.0], [0.4210184006696811, 0.7377049180327873, -0.1428571428571429, -1.0], [0.42190840431060517, 0.7377049180327873, -0.08571428571428574, -1.0], [0.4230971504323986, 0.7377049180327873, -0.08571428571428574, -1.0], [0.424721562672127, 0.7377049180327873, -0.08571428571428574, -1.0], [0.4263055202009043, 0.7377049180327873, -0.08571428571428574, -1.0], [0.427478706818486, 0.7377049180327873, -0.08571428571428574, -1.0], [0.4286643410394373, 0.7377049180327873, -0.08571428571428574, -1.0], [0.42944854005171984, 0.7377049180327873, -0.08571428571428574, -1.0], [0.4305003625364483, 0.7377049180327873, -0.08571428571428574, -1.0], [0.43160819923633964, 0.7377049180327873, -0.02857142857142858, -1.0], [0.4337149561066387, 0.7377049180327873, -0.02857142857142858, -1.0], [0.43465475016104094, 0.7377049180327873, -0.02857142857142858, -1.0], [0.4356941250423998, 0.7377049180327873, -0.02857142857142858, -1.0], [0.43644720504625845, 0.7377049180327873, 0.02857142857142847, -1.0], [0.4372874182737041, 0.7377049180327873, 0.02857142857142847, -1.0], [0.4381058481952531, 0.7377049180327873, 0.02857142857142847, -1.0], [0.439241692002726, 0.7377049180327873, 0.02857142857142847, -1.0], [0.44137334407976425, 0.7377049180327873, 0.08571428571428563, -1.0], [0.44365125549639495, 0.7377049180327873, 0.08571428571428563, -1.0], [0.44521965352096027, 0.7377049180327873, 0.08571428571428563, -1.0], [0.4460505310458789, 0.7377049180327873, 0.08571428571428563, -1.0], [0.4472828437794658, 0.7377049180327873, 0.08571428571428563, -1.0], [0.44817907122207457, 0.7377049180327873, 0.08571428571428563, -1.0], [0.44951407668346066, 0.7377049180327873, 0.08571428571428563, -1.0], [0.45094243917011845, 0.7377049180327873, 0.08571428571428563, -1.0], [0.4524330396736238, 0.7377049180327873, 0.08571428571428563, -1.0], [0.45365290480384135, 0.7377049180327873, 0.08571428571428563, -1.0], [0.4547296224953088, 0.7377049180327873, 0.08571428571428563, -1.0], [0.4556974236572926, 0.7377049180327873, 0.08571428571428563, -1.0], [0.45696707920098834, 0.7377049180327873, 0.08571428571428563, -1.0], [0.45802201358655914, 0.7377049180327873, 0.08571428571428563, -1.0], [0.45912673838560814, 0.7377049180327873, 0.08571428571428563, -1.0], [0.4601536656635974, 0.7540983606557379, 0.08571428571428563, -1.0], [0.4615384615384617, 0.7540983606557379, 0.08571428571428563, -1.0], [0.46254982931223876, 0.7540983606557379, 0.08571428571428563, -1.0], [0.46346472815990203, 0.7540983606557379, 0.08571428571428563, -1.0], [0.4641431225435433, 0.7540983606557379, 0.08571428571428563, -1.0], [0.4652167283341684, 0.7540983606557379, 0.08571428571428563, -1.0], [0.46640547445596203, 0.7540983606557379, 0.08571428571428563, -1.0], [0.4678089417358806, 0.7540983606557379, 0.08571428571428563, -1.0], [0.468789190501234, 0.7540983606557379, 0.08571428571428563, -1.0], [0.4695858371168862, 0.7540983606557379, 0.08571428571428563, -1.0], [0.47026734340137, 0.7540983606557379, 0.08571428571428563, -1.0], [0.47096440919006555, 0.7540983606557379, 0.19999999999999996, -1.0], [0.47247990490031033, 0.7540983606557379, 0.19999999999999996, -1.0], [0.4735597344926201, 0.7540983606557379, 0.19999999999999996, -1.0], [0.4745679903655551, 0.7540983606557379, 0.19999999999999996, -1.0], [0.47540820359300073, 0.7540983606557379, 0.19999999999999996, -1.0], [0.4760305837614791, 0.7540983606557379, 0.19999999999999996, -1.0], [0.47666852343416943, 0.7540983606557379, 0.19999999999999996, -1.0], [0.47741849153718574, 0.7540983606557379, 0.19999999999999996, -1.0], [0.47855433534465863, 0.7540983606557379, 0.19999999999999996, -1.0], [0.4796248292344414, 0.7540983606557379, 0.19999999999999996, -1.0], [0.48040280444503924, 0.7540983606557379, 0.19999999999999996, -1.0], [0.481099870233735, 0.7540983606557379, 0.19999999999999996, -1.0], [0.48147641023566434, 0.7540983606557379, 0.2571428571428571, -1.0], [0.4821610284209905, 0.7540983606557379, 0.3142857142857143, -1.0], [0.4829234441273764, 0.7540983606557379, 0.3142857142857143, -1.0], [0.4838881333885179, 0.7540983606557379, 0.3142857142857143, -1.0], [0.4845758634746864, 0.7540983606557379, 0.3142857142857143, -1.0], [0.4854191886029744, 0.7540983606557379, 0.3142857142857143, -1.0], [0.48617849240851796, 0.7540983606557379, 0.3142857142857143, -1.0], [0.4866048228239257, 0.7540983606557379, 0.3142857142857143, -1.0], [0.4870809436528114, 0.7540983606557379, 0.3142857142857143, -1.0], [0.487737554730556, 0.7540983606557379, 0.3142857142857143, -1.0], [0.48946154779724105, 0.7540983606557379, 0.3142857142857143, -1.0], [0.49022396350362696, 0.7540983606557379, 0.3142857142857143, -1.0], [0.4908867983830565, 0.7540983606557379, 0.3142857142857143, -1.0], [0.49132246450099126, 0.7540983606557379, 0.3142857142857143, -1.0], [0.4915620808658554, 0.7540983606557379, 0.3142857142857143, -1.0], [0.4918514876441977, 0.7540983606557379, 0.3142857142857143, -1.0], [0.49225292285286626, 0.7540983606557379, 0.3142857142857143, -1.0], [0.49278194599607295, 0.7540983606557379, 0.3142857142857143, -1.0], [0.49336387145360017, 0.7540983606557379, 0.3142857142857143, -1.0], [0.49408894434987727, 0.7540983606557379, 0.3142857142857143, -1.0], [0.49463041509645334, 0.7540983606557379, 0.3142857142857143, -1.0], [0.49505363361101873, 0.7540983606557379, 0.3142857142857143, -1.0], [0.49551108303485014, 0.7540983606557379, 0.3142857142857143, -1.0], [0.4959560848553122, 0.7540983606557379, 0.3142857142857143, -1.0], [0.49656601742042095, 0.7540983606557379, 0.3142857142857143, -1.0], [0.49716661428300246, 0.7540983606557379, 0.3142857142857143, -1.0], [0.4976676303186276, 0.7540983606557379, 0.3142857142857143, -1.0], [0.4981810939576221, 0.7540983606557379, 0.3142857142857143, -1.0], [0.49853896255449714, 0.7540983606557379, 0.3142857142857143, -1.0], [0.49890616685389944, 0.7540983606557379, 0.3142857142857143, -1.0], [0.49933872107099186, 0.7540983606557379, 0.3142857142857143, -1.0], [0.4999984440495788, 0.7540983606557379, 0.3142857142857143, -1.0], [0.500595929011318, 0.7540983606557379, 0.3142857142857143, -1.0], [0.5011405116587366, 0.7704918032786885, 0.3142857142857143, -1.0], [0.5017255490171062, 0.7704918032786885, 0.3142857142857143, -1.0], [0.5021394318291443, 0.7704918032786885, 0.3142857142857143, -1.0], [0.5025470908394976, 0.7704918032786885, 0.3142857142857143, -1.0], [0.5031103448919705, 0.7704918032786885, 0.3142857142857143, -1.0], [0.5038447534907748, 0.7704918032786885, 0.3142857142857143, -1.0], [0.5045884977921065, 0.7704918032786885, 0.3142857142857143, -1.0], [0.5056029774667261, 0.7704918032786885, 0.3142857142857143, -1.0], [0.5063000432554219, 0.7704918032786885, 0.3142857142857143, -1.0], [0.5068446259028403, 0.7704918032786885, 0.3142857142857143, -1.0], [0.505363361101862, 0.7704918032786885, 0.3142857142857143, -1.0], [0.5062004624284653, 0.7704918032786885, 0.3142857142857143, -1.0], [0.5070717946643348, 0.7704918032786885, 0.3142857142857143, -1.0], [0.5102583811269439, 0.7704918032786885, 0.657142857142857, -1.0], [0.5108776493945797, 0.7704918032786885, 0.657142857142857, -1.0], [0.5115124771664277, 0.7704918032786885, 0.5999999999999999, -1.0], [0.5126732161806398, 0.7704918032786885, 0.5999999999999999, -1.0], [0.516840051408602, 0.7704918032786885, 0.5999999999999999, -1.0], [0.5183213162095803, 0.7704918032786885, 0.5999999999999999, -1.0], [0.5195442932406402, 0.7704918032786885, 0.5999999999999999, -1.0], [0.5212465030014284, 0.7704918032786885, 0.5999999999999999, -1.0], [0.5231603220194991, 0.7704918032786885, 0.5999999999999999, -1.0], [0.5298229017230596, 0.7704918032786885, 0.5999999999999999, -1.0], [0.532275079586864, 0.7704918032786885, 0.5999999999999999, -1.0], [0.5346774670371903, 0.7704918032786885, 0.5999999999999999, -1.0], [0.5375373039113482, 0.7704918032786885, 0.5999999999999999, -1.0], [0.5416170059157235, 0.7704918032786885, 0.5999999999999999, -1.0], [0.5528011775432788, 0.7704918032786885, 0.5999999999999999, -1.0], [0.556815529629964, 0.7704918032786885, 0.5999999999999999, -1.0], [0.5600207874976273, 0.7704918032786885, 0.5999999999999999, -1.0], [0.564056922890209, 0.7704918032786885, 0.5999999999999999, -1.0], [0.569580546885454, 0.7868852459016396, 0.5999999999999999, -1.0], [0.587589117060374, 0.7868852459016396, 0.657142857142857, -1.0], [0.5916781547672765, 0.7868852459016396, 0.657142857142857, -1.0], [0.5963553417333911, 0.7868852459016396, 0.657142857142857, -1.0], [0.6016735802730382, 0.7868852459016396, 0.7142857142857142, -1.0], [0.6095591370076585, 0.7868852459016396, 0.7142857142857142, -1.0], [0.6169094467973872, 0.8032786885245906, 0.7142857142857142, -1.0], [0.6243095470005944, 0.8032786885245906, 0.7142857142857142, -1.0], [0.6306764961241276, 0.8032786885245906, 0.7142857142857142, -1.0], [0.6368722907013291, 0.8032786885245906, 0.7142857142857142, -1.0], [0.642386578994047, 0.8032786885245906, 0.7142857142857142, -1.0], [0.648728632910841, 0.8032786885245906, 0.7142857142857142, -1.0], [0.6577718167588309, 0.8196721311475412, 0.7142857142857142, -1.0], [0.6666718531680706, 0.8196721311475412, 0.7142857142857142, -1.0], [0.6763125219777997, 0.8196721311475412, 0.7142857142857142, -1.0], [0.6854397271485342, 0.8196721311475412, 0.7142857142857142, -1.0], [0.6922921328034803, 0.8360655737704918, 0.7142857142857142, -1.0], [0.7016029401239159, 0.8360655737704918, 0.7142857142857142, -1.0], [0.7100579747126938, 0.8360655737704918, 0.7142857142857142, -1.0], [0.7204548354271241, 0.8524590163934429, 0.7142857142857142, -1.0], [0.73032578489919, 0.8524590163934429, 0.7714285714285714, -1.0], [0.7412423330542997, 0.8524590163934429, 0.7714285714285714, -1.0], [0.7489847423501699, 0.8688524590163935, 0.7714285714285714, -1.0], [0.7571285868547086, 0.8688524590163935, 0.7714285714285714, -1.0], [0.7655058239224266, 0.8688524590163935, 0.7714285714285714, -1.0], [0.7737243540471828, 0.8688524590163935, 0.8285714285714285, -1.0], [0.7843483835231075, 0.8852459016393446, 0.8285714285714285, -1.0], [0.7963198660637878, 0.8852459016393446, 0.8285714285714285, -1.0], [0.805453295036207, 0.8852459016393446, 0.8857142857142857, 1.0], [0.8173718752625667, 0.9016393442622952, 0.8857142857142857, 1.0], [0.8249929204255837, 0.9016393442622952, 0.8857142857142857, 1.0], [0.8418563110905035, 0.9180327868852463, 0.8857142857142857, 1.0], [0.8496142798905857, 0.9180327868852463, 0.8857142857142857, 1.0], [0.8590433394430321, 0.9180327868852463, 0.8857142857142857, 1.0], [0.866791972540587, 0.9180327868852463, 0.8857142857142857, 1.0], [0.8785985243366206, 0.9344262295081969, 0.8857142857142857, 1.0], [0.8859799531347734, 0.9344262295081969, 0.8857142857142857, 1.0], [0.892073054984176, 0.9344262295081969, 0.8857142857142857, -1.0], [0.8977989525341765, 0.9508196721311475, 0.8857142857142857, -1.0], [0.9027966652870574, 0.9508196721311475, 0.8857142857142857, -1.0], [0.9095121473049383, 0.9508196721311475, 0.8857142857142857, -1.0], [0.919983693639586, 0.9508196721311475, 0.8857142857142857, -1.0], [0.9274802627689072, 0.9508196721311475, 0.9428571428571428, 1.0], [0.9331003556902664, 0.9672131147540985, 0.9428571428571428, 1.0], [0.9429806408648596, 0.9672131147540985, 0.9428571428571428, 1.0], [0.9487812240350775, 0.9672131147540985, 1.0, 1.0], [0.954071455467143, 0.9672131147540985, 1.0, 1.0], [0.9616395983158392, 0.9836065573770496, 1.0, 1.0], [0.9688965510802965, 0.9836065573770496, 1.0, 1.0], [0.9757987471487208, 0.9836065573770496, 1.0, 1.0], [0.9810454119689931, 0.9836065573770496, 1.0, 1.0], [0.985853298770488, 0.9836065573770496, 1.0, 1.0], [0.9900761482136133, 0.9836065573770496, 1.0, 1.0], [0.9948591398083693, 1.0000000000000002, 1.0, 1.0], [1.0, 1.0000000000000002, 1.0, 1.0]]}